digraph Tree {
node [shape=box, style="filled, rounded", color="black", fontname=helvetica] ;
edge [fontname=helvetica] ;
0 [label="petal width (cm) <= 0.7\ngini = 0.67\nsamples = 93\nvalue = [48, 51, 51]\nclass = versicolor", fillcolor="#ffffff"] ;
1 [label="gini = 0.0\nsamples = 32\nvalue = [48, 0, 0]\nclass = setosa", fillcolor="#e58139"] ;
0 -> 1 [labeldistance=2.5, labelangle=45, headlabel="True"] ;
2 [label="petal width (cm) <= 1.55\ngini = 0.5\nsamples = 61\nvalue = [0, 51, 51]\nclass = versicolor", fillcolor="#ffffff"] ;
0 -> 2 [labeldistance=2.5, labelangle=-45, headlabel="False"] ;
3 [label="petal length (cm) <= 4.95\ngini = 0.14\nsamples = 30\nvalue = [0, 47, 4]\nclass = versicolor", fillcolor="#4ae78c"] ;
2 -> 3 ;
4 [label="gini = 0.0\nsamples = 28\nvalue = [0, 47, 0]\nclass = versicolor", fillcolor="#39e581"] ;
3 -> 4 ;
5 [label="gini = 0.0\nsamples = 2\nvalue = [0, 0, 4]\nclass = virginica", fillcolor="#8139e5"] ;
3 -> 5 ;
6 [label="petal width (cm) <= 1.85\ngini = 0.14\nsamples = 31\nvalue = [0, 4, 47]\nclass = virginica", fillcolor="#8c4ae7"] ;
2 -> 6 ;
7 [label="sepal length (cm) <= 6.05\ngini = 0.35\nsamples = 12\nvalue = [0, 4, 14]\nclass = virginica", fillcolor="#a572ec"] ;
6 -> 7 ;
8 [label="gini = 0.0\nsamples = 2\nvalue = [0, 3, 0]\nclass = versicolor", fillcolor="#39e581"] ;
7 -> 8 ;
9 [label="petal width (cm) <= 1.75\ngini = 0.12\nsamples = 10\nvalue = [0, 1, 14]\nclass = virginica", fillcolor="#8a47e7"] ;
7 -> 9 ;
10 [label="petal length (cm) <= 5.4\ngini = 0.38\nsamples = 2\nvalue = [0, 1, 3]\nclass = virginica", fillcolor="#ab7bee"] ;
9 -> 10 ;
11 [label="gini = 0.0\nsamples = 1\nvalue = [0, 1, 0]\nclass = versicolor", fillcolor="#39e581"] ;
10 -> 11 ;
12 [label="gini = 0.0\nsamples = 1\nvalue = [0, 0, 3]\nclass = virginica", fillcolor="#8139e5"] ;
10 -> 12 ;
13 [label="gini = 0.0\nsamples = 8\nvalue = [0, 0, 11]\nclass = virginica", fillcolor="#8139e5"] ;
9 -> 13 ;
14 [label="gini = 0.0\nsamples = 19\nvalue = [0, 0, 33]\nclass = virginica", fillcolor="#8139e5"] ;
6 -> 14 ;
}